{"HiddenLayer":[0.9999973867102766,0.6289348537348514,0.9796785432227574,0.0000065413794835640875,0.5481584776850544,0.8748137901565614,0.9989526728640372,0.999997969297703,0.7137855103776879,0.5868743539100901,0.9999397551650107,0.4013037464578428,0.42317505211367024,0.9999936049140566,0.18550784776449006,0.9569283190964211,1],"InputLayer":[3.1,0.4,0.1,1],"OutputLayer":[0.9999992787432834,9.016117880186907e-7,0.00027829556012580134],"WeightHidden":[[5.369427930058872,-5.180524562695879,-2.5307126754205496,-1.4650474344605624],[0.008347684746718867,1.3263629229852187,0.24410298502292174,-0.05318315982325512],[1.0932088400320124,-0.7646610953467401,0.7504194289517604,0.7174222829296247],[-4.883752401849198,4.791948951446658,2.3482915816174392,1.050667794668285],[-0.18719178966841085,-1.0457158498491943,1.788821978973842,1.0129316976623615],[0.7615725626275006,-0.032109990264327794,1.2036468102102977,-0.5241868615230425],[2.9755743435716906,-2.6455205989907307,-1.3756417329983326,-1.1680420052252827],[5.515519063583982,-5.292603447212024,-2.582062894595923,-1.6157346256866065],[0.26547510580756073,1.0995231129667442,-0.6652908717959327,-0.28241193531136],[0.3215172422623783,-0.151028330874457,-0.9688830049060676,-0.48834480985053447],[3.763543249341291,-3.8443516260576693,-1.9091360722476267,-0.22129636917709547],[-0.36562041521582406,1.3346958328421004,-0.3303907879636169,0.23254826458823152],[-0.44487084502690466,-0.22708418408444692,-0.3421947331605066,1.1943998464534584],[4.745792721845773,-4.78267381570332,-2.3459791214352244,-0.6043157360010274],[-0.6890294777560483,1.0539393964065904,0.36445724511194033,0.19850232133076792],[0.8632756977185949,-0.7333747536965658,0.9155127601444282,0.6265067313487138],[0.023742144400032528,0.4574018136329048,0.006528398843098637,-0.8677238408432673]],"WeightOutput":[[5.317505431065648,-1.4745981679239946,-0.6188065380036646,-5.077242446795256,-2.026866503078892,-0.6717606398554832,3.137642525928618,4.4911885689710145,-0.9149422646934798,-0.14118904256971004,2.8515490739937563,-0.6986460378068242,-0.6953391103279679,4.861168402983035,-1.2353649376311826,-0.22380936826258416,-1.526979971443972],[-4.7794313514181255,0.664572171594883,1.0920275692960952,4.83504990078358,1.4707386013807433,1.1133349684235376,-2.087398786215613,-5.9139718186715795,0.40816752638240156,-0.6103387940082001,-3.9550774080603968,1.5131311510069936,0.9157321149149286,-3.9457882969559166,0.7050590168885812,1.2977774401912732,1.1915477213828478],[-0.9587479068029979,-1.853460852042403,-0.7133772574840289,-0.7892206255677526,-1.4245116932576825,-0.9907583531041104,-0.2684802862472551,0.12155892926799687,-0.6595653475425002,-0.668246981915773,0.29353627676016625,0.17639618300376037,0.24010219890563922,-0.9411326603631949,-0.6686126860263577,-0.8571047664226127,-1.2865837226433825]],"ErrOutput":[-7.212567165737482e-7,9.016117880186907e-7,0.00027829556012580134],"ErrHidden":[-7.423949491190015e-8,-1.4350635519288137e-7,-5.5233353523257785e-8,-6.110030719168975e-8,-1.1029322394939845e-7,-7.671005752136981e-8,-2.0790914529939043e-8,9.404784484205234e-9,-5.106726844005065e-8,-5.174069083013651e-8,2.272289674156519e-8,1.3659397581083497e-8,1.8591467384126557e-8,-7.287468653730571e-8,-5.176736811963627e-8,-6.636176224950488e-8,0],"LastChangeHidden":[[8.40678174633774e-9,3.073956882386983e-9,1.1487168448831413e-8,2.050535046606062e-9],[-2.6833283810209256e-8,-3.5411405634294433e-9,-4.586480844565212e-9,-8.956059354858287e-9],[-8.572231650221634e-10,-1.1144526371912199e-10,-4.2642274550984866e-11,-2.77493280844289e-10],[-8.493557657373192e-9,-3.105832942251621e-9,-1.1604486419967333e-8,-2.071729305549798e-9],[-2.1181300165931193e-8,-2.7366642748224784e-9,-6.874547699404968e-10,-6.831976314042818e-9],[-6.514904443198395e-9,-8.419561411940428e-10,-2.1503062553995615e-10,-2.1017084931319273e-9],[6.121259245036858e-9,2.2425668421375683e-9,8.384392517660257e-9,1.4915096078543345e-9],[8.772075211898786e-9,3.2077897413927834e-9,1.198529427546474e-8,2.1396314550544772e-9],[-9.309326059239458e-9,-1.4865711809647238e-9,-2.0229600590010058e-9,-2.9200339676289935e-9],[-9.71196283232565e-9,-1.251890083214175e-9,-2.994911612067784e-10,-3.1351506279267102e-9],[6.287935791326432e-9,2.298729114496716e-9,8.591070954608077e-9,1.5338603032140504e-9],[3.7440272086833284e-10,-4.736907160134164e-10,-2.712650421385607e-9,3.1590611766634646e-10],[3.165664936126266e-9,3.0705136135540114e-10,1.2405874888862536e-13,1.1022497505507742e-9],[7.020877968980186e-9,2.566732860676217e-9,9.59508613120677e-9,1.712500991762992e-9],[-8.23543006865852e-9,-1.5413213016528229e-9,-3.885223510616841e-9,-2.591028647504253e-9],[-2.1253961327930974e-9,-2.756781058561037e-10,-7.824398036040676e-11,-6.859526891499223e-10],[0,0,0,0]],"LastChangeOutput":[[2.4132894052830466e-10,1.1738216664863638e-9,1.2152183281751056e-9,9.68797553559448e-10,1.2157855926938357e-9,1.2154317117092351e-9,4.192605942687313e-10,2.398966286731567e-10,2.659922932013258e-10,9.43652890210916e-12,2.7063212034178225e-10,2.998666834575864e-10,6.416342916655656e-11,2.2902643573188256e-10,8.875829048979766e-10,1.2152214944456598e-9,1.2155176592901054e-9],[-2.690232004832987e-10,-1.3094481282624463e-9,-1.3556305483177539e-9,-1.0809135152610317e-9,-1.3564618552584474e-9,-1.3558729083909376e-9,-4.6754458331112e-10,-2.6742376303803855e-10,-2.965316130174766e-10,-1.0409962250947953e-11,-3.0173535940289884e-10,-3.3435382579850026e-10,-7.155284044152263e-11,-2.553079727740682e-10,-9.901655918853813e-10,-1.355644277787136e-9,-1.3559572240122869e-9],[1.938314596239752e-8,1.3963224689441122e-8,2.106442350820009e-8,2.077264206228583e-9,1.2704908327710884e-8,1.9036090241326163e-8,1.937523432416526e-8,1.9383072388736366e-8,1.3871258411609576e-8,1.1369793390768989e-8,1.938394307058339e-8,8.00110092981233e-9,8.55633165421307e-9,1.9382244258106728e-8,5.4319356333800824e-9,2.0624929473805374e-8,2.1460655016923346e-8]],"Regression":false,"Rate1":0.25,"Rate2":0.1}
